<?xml version="1.0"?>
<opencv_storage>
<cascade>
  <stageType>BOOST</stageType>
  <featureType>HAAR</featureType>
  <height>33</height>
  <width>40</width>
  <stageParams>
    <boostType>GAB</boostType>
    <minHitRate>9.9500000476837158e-01</minHitRate>
    <maxFalseAlarm>5.0000000000000000e-01</maxFalseAlarm>
    <weightTrimRate>9.4999998807907104e-01</weightTrimRate>
    <maxDepth>1</maxDepth>
    <maxWeakCount>100</maxWeakCount></stageParams>
  <featureParams>
    <maxCatCount>0</maxCatCount>
    <featSize>1</featSize>
    <mode>BASIC</mode></featureParams>
  <stageNum>3</stageNum>
  <stages>
    <!-- stage 0 -->
    <_>
      <maxWeakCount>2</maxWeakCount>
      <stageThreshold>-4.6970736980438232e-01</stageThreshold>
      <weakClassifiers>
        <_>
          <internalNodes>
            0 -1 3 -2.4142647162079811e-02</internalNodes>
          <leafValues>
            8.3529412746429443e-01 -9.3175852298736572e-01</leafValues></_>
        <_>
          <internalNodes>
            0 -1 4 -1.1275573633611202e-02</internalNodes>
          <leafValues>
            4.6205115318298340e-01 -9.6889656782150269e-01</leafValues></_></weakClassifiers></_>
    <!-- stage 1 -->
    <_>
      <maxWeakCount>3</maxWeakCount>
      <stageThreshold>-1.0764809846878052e+00</stageThreshold>
      <weakClassifiers>
        <_>
          <internalNodes>
            0 -1 6 1.1180587112903595e-02</internalNodes>
          <leafValues>
            -9.3157893419265747e-01 8.1395345926284790e-01</leafValues></_>
        <_>
          <internalNodes>
            0 -1 2 -8.5678324103355408e-03</internalNodes>
          <leafValues>
            7.0802533626556396e-01 -8.7769740819931030e-01</leafValues></_>
        <_>
          <internalNodes>
            0 -1 5 1.0130804963409901e-02</internalNodes>
          <leafValues>
            -8.4001904726028442e-01 7.3279535770416260e-01</leafValues></_></weakClassifiers></_>
    <!-- stage 2 -->
    <_>
      <maxWeakCount>2</maxWeakCount>
      <stageThreshold>4.6875000000000000e-02</stageThreshold>
      <weakClassifiers>
        <_>
          <internalNodes>
            0 -1 1 4.7996006906032562e-03</internalNodes>
          <leafValues>
            1. -9.5312500000000000e-01</leafValues></_>
        <_>
          <internalNodes>
            0 -1 0 7.6528143836185336e-05</internalNodes>
          <leafValues>
            1. -9.4074022769927979e-01</leafValues></_></weakClassifiers></_></stages>
  <features>
    <_>
      <rects>
        <_>
          5 7 2 9 -1.</_>
        <_>
          6 7 1 9 2.</_></rects>
      <tilted>0</tilted></_>
    <_>
      <rects>
        <_>
          5 18 27 4 -1.</_>
        <_>
          14 18 9 4 3.</_></rects>
      <tilted>0</tilted></_>
    <_>
      <rects>
        <_>
          6 1 3 10 -1.</_>
        <_>
          6 6 3 5 2.</_></rects>
      <tilted>0</tilted></_>
    <_>
      <rects>
        <_>
          6 5 6 12 -1.</_>
        <_>
          6 9 6 4 3.</_></rects>
      <tilted>0</tilted></_>
    <_>
      <rects>
        <_>
          9 5 13 12 -1.</_>
        <_>
          9 9 13 4 3.</_></rects>
      <tilted>0</tilted></_>
    <_>
      <rects>
        <_>
          15 17 13 14 -1.</_>
        <_>
          15 24 13 7 2.</_></rects>
      <tilted>0</tilted></_>
    <_>
      <rects>
        <_>
          32 19 6 11 -1.</_>
        <_>
          35 19 3 11 2.</_></rects>
      <tilted>0</tilted></_></features></cascade>
</opencv_storage>
